{
    "hidden_layer": {
        "neuron_0": {
            "weights": [
                -0.250919762305275,
                0.3399321369215084,
                -0.4225880491730567,
                -0.11893256665806078,
                -0.5275403285338691,
                -0.7869960654025735,
                0.0934205586865593,
                -0.823014995896161,
                -0.4381309806252385,
                -1.0200283008449293,
                0.6951343166590559,
                0.7744254851526531,
                0.045465658763988115,
                0.815132947852186,
                0.6797315066012533,
                0.5456496520778791,
                -1.339341373989867,
                -0.31566439156550596,
                -0.7835646462973046,
                -1.232230539397019,
                -0.2955062696536257,
                -1.0872243654176963,
                0.213100827677706,
                -0.6528913930969185,
                0.2788158307471957,
                0.21483263405832034,
                -0.9898768323075626,
                -0.34920060368146455,
                -0.4695952646365491,
                -0.025856028831180343,
                0.5074881481181249,
                0.9272399541785057,
                0.8723095483215619,
                0.7547461438559109,
                0.7030721020680762,
                0.28364893069869634,
                0.10218837590202369,
                1.0690929778426883,
                0.9812885390907793,
                -1.1180731616963095
            ],
            "bias": -0.23406306629738552
        },
        "neuron_1": {
            "weights": [
                0.9014286128198323,
                0.3634500065494142,
                -0.018689863527991315,
                0.5021491959935594,
                0.9067752141279877,
                -0.07784890656992707,
                -0.6302910889489459,
                -0.6080342751617096,
                0.08539216631649693,
                0.5627201301172006,
                0.17839352686264953,
                -0.05557014967610141,
                -0.14491796328290074,
                -0.5014155417022501,
                0.5451883695193338,
                0.6721121722278561,
                -0.04305434632590104,
                0.34148896630932285,
                -0.9907750567719652,
                -0.10115100867569782,
                0.1964089343946923,
                0.16627830862669307,
                -0.24203688514871574,
                0.30446051431856475,
                0.18614638531571073,
                -0.9517904976290327,
                -0.6783838971650027,
                0.4929828102360483,
                -0.5120207132418328,
                -0.08601700197177511,
                0.830650287591386,
                0.7060189109347201,
                0.392059593349946,
                0.4815372355084089,
                0.7582783783204748,
                -0.4211688043815902,
                0.24538802440304397,
                -0.5046364417412924,
                1.015425662190096,
                0.909789251606063
            ],
            "bias": 0.16349746931196663
        },
        "neuron_2": {
            "weights": [
                0.4639878836228102,
                -0.9161954991717514,
                -0.05150647013946783,
                -0.5160489431069792,
                0.5810010423655462,
                -0.8466194651932614,
                0.9391692555291171,
                -0.9095454221789239,
                -0.7181515500504747,
                0.49831818027153524,
                -0.2536004577184009,
                -0.7608115081233966,
                -0.9491617465118096,
                -0.17923415392874054,
                0.7006580193861606,
                -0.6865602655258792,
                0.5769675561067901,
                0.469404754567815,
                0.9612742177690253,
                1.7554144383700772,
                0.3516629140980892,
                0.39709670402422054,
                0.9154279578131264,
                0.676412380742089,
                0.46217311224628777,
                -0.999309787280379,
                0.09746757873317224,
                0.2992657980944293,
                0.9460211095048912,
                -0.17566351803859742,
                1.2645952968007759,
                -0.4111022158608286,
                0.14012234017872993,
                0.39403148199053595,
                0.10728829029817581,
                0.2958905133116663,
                -1.2313388296485734,
                -0.046558377888679996,
                -0.2597386329242907,
                0.713928221364069
            ],
            "bias": 0.3547907943115874
        },
        "neuron_3": {
            "weights": [
                0.1973169683940732,
                1.209147089703856,
                -0.20202030420605877,
                0.2439902922250807,
                0.9733435174587463,
                1.0341622195554212,
                0.5502656467222291,
                -0.3493393384734713,
                0.6043939615080793,
                0.6735357514798317,
                -0.6573618840300958,
                0.42648957444599,
                -0.7842171460133911,
                0.5111022770860973,
                0.17068169757294868,
                -0.059889761880718304,
                -1.4307667131048138,
                0.06858183139563725,
                -0.8696242875885635,
                -1.4446777610052974,
                0.2870707835473733,
                -1.0206303121263136,
                -0.7787640816900359,
                0.056595653216903345,
                -1.2303691548029776,
                1.5171147661180866,
                0.3837903953853865,
                0.6984468209883559,
                -0.2138045506664792,
                -0.1273352522794749,
                -0.40071000531707307,
                -0.22980454279614948,
                -0.8056470124584629,
                0.40496816797421853,
                0.21855400477225667,
                -1.3660072992801882,
                -0.28547887674148,
                -0.189480324252373,
                0.28573769164258417,
                0.338142442205376
            ],
            "bias": -0.693870565058054
        },
        "neuron_4": {
            "weights": [
                -0.687962719115127,
                0.8040885251274895,
                0.22843732149189697,
                0.18956066977122296,
                -0.3136079176792358,
                -0.4777085047528266,
                0.8789978831283782,
                -0.22264542062103598,
                -0.8508987126404584,
                0.5472722254190213,
                -0.37330382452153604,
                0.5215700972337949,
                -0.9371416286265315,
                -0.5424036690167551,
                0.6408926288719081,
                -1.3789660998075495,
                -0.6694136227534617,
                1.0157502324633974,
                -0.8061868549208486,
                0.3006550259114123,
                -0.8146889278440536,
                -0.11028559488095231,
                -0.452339009378999,
                -0.07517055476750172,
                0.40829528884013394,
                -0.6219783055722463,
                0.30392251900520106,
                0.31522578460068673,
                0.7840931103542266,
                -0.4049068000446116,
                -1.0415197788691466,
                0.7022733430337138,
                0.23001445339833948,
                -0.28101769756048967,
                0.6013218899806801,
                -0.24624765431398418,
                1.5331166792053654,
                -0.00872099977673953,
                1.4782879474234565,
                -0.3165658226509763
            ],
            "bias": -0.24604323869991954
        },
        "neuron_5": {
            "weights": [
                -0.6880109593275947,
                -0.3271042776064315,
                -0.5450375749751646,
                -0.7311244708392537,
                -0.7262421431156639,
                0.5010192724287146,
                0.7896547008552977,
                -0.4573019364522082,
                0.9737738732010346,
                -0.6759359928110684,
                -0.17365865222575416,
                0.12255439513899247,
                0.2728208225275608,
                -0.846040180342414,
                -0.32169827599150413,
                -0.9678202507089871,
                -0.02577888251162547,
                -0.19744463366815246,
                -0.14371629684565856,
                0.7499872080222892,
                0.8465796948992268,
                -0.619251246920389,
                -0.8452957548350868,
                -0.5885382155153616,
                1.0209684972700062,
                -1.8036417247282446,
                -0.5514613810788804,
                0.13661720667094324,
                0.2622772519945258,
                -0.6462064609006687,
                0.9541982000246317,
                -0.36615598968744467,
                0.9801077002085266,
                -0.4128163114710133,
                0.47590256527627856,
                -1.0338695064461336,
                0.667618540860677,
                1.0099465211744478,
                0.4889017605622981,
                -0.7256541571745734
            ],
            "bias": 0.427694535149225
        },
        "neuron_6": {
            "weights": [
                -0.8838327756636011,
                -1.0168522459745135,
                -0.4865520190580655,
                0.14424838767437204,
                0.08941619017000683,
                -0.4474191639496799,
                0.19579995762217028,
                0.6574750183038587,
                0.5444895385933148,
                -0.3539098590399566,
                0.38837104054762633,
                0.541934359909122,
                -0.37128803784734665,
                -0.42049709417246395,
                0.7649547415608644,
                1.1669108119566274,
                0.8350451510000416,
                -0.05627724504022126,
                0.7657575151083107,
                -0.26583830457998364,
                -0.42928118618503014,
                0.600006445079111,
                1.1590481008173308,
                -0.5041336001279909,
                1.0330594559654473,
                -0.266175634156292,
                0.4243584426950717,
                -0.812650464343815,
                0.5896226070832968,
                0.2707813363952414,
                0.06457684336043207,
                -0.661014506627815,
                -0.7198319695269519,
                0.6187223109570272,
                0.3330924383869049,
                0.3676434036797659,
                -1.6773294945001043,
                -0.8501802765836551,
                -1.0535076783925974,
                -0.37746505039761924
            ],
            "bias": -0.06456879896832902
        },
        "neuron_7": {
            "weights": [
                0.7323522915498704,
                -0.4431611237776609,
                -0.02757005845598069,
                -0.41924549766878116,
                0.14059499943705916,
                0.2798422973122579,
                0.8437484700462337,
                -0.28649334661282144,
                -0.6025686369316552,
                -0.5285556259931029,
                0.5148211976670611,
                -0.012408807271218514,
                0.01714138232940554,
                -0.6775574254919912,
                -0.0011029599732355552,
                2.1221773613772976,
                -0.7433479901620502,
                -0.7879972345700212,
                -0.9106300728696158,
                0.11635524146132578,
                -0.3872567242436561,
                -0.6015907435488539,
                0.8043551052031253,
                0.8441079143478167,
                0.21967363595285425,
                1.727719733080706,
                -0.5255018250063999,
                -0.26456839388113296,
                0.005274186210384224,
                -0.7255660849904432,
                0.9127258810861175,
                0.11360252491670031,
                0.036659304727473474,
                0.6202267893583615,
                0.8312915938288398,
                0.23413195308074802,
                -0.5367397090793264,
                -0.3063664261925233,
                -1.4243134665044013,
                -0.44983780522964534
            ],
            "bias": 0.9526859373332822
        }
    },
    "output_layer": {
        "neuron_0": {
            "weights": [
                -1.0713420732759746,
                -0.8962574866367975,
                1.5963336153031955,
                -1.6722069017792591,
                -3.2173369545068504,
                -2.3901251649009834,
                2.452515189867547,
                1.9278550146995266
            ],
            "bias": -0.0908211115158821
        },
        "neuron_1": {
            "weights": [
                0.050106301599029526,
                0.7168215992804672,
                1.3351178674085415,
                -2.2326399916359336,
                1.2428901833576207,
                2.546845045994785,
                -1.3740341232334545,
                -4.5207189903393745
            ],
            "bias": -0.8962265187949129
        },
        "neuron_2": {
            "weights": [
                1.591438204303136,
                0.4187334442196636,
                -3.277871016821961,
                3.507610604360915,
                -0.8071796753980424,
                -0.3258323998910459,
                -2.250535116734885,
                0.9853444610943026
            ],
            "bias": -0.9425270503584753
        }
    }
}