{
    "hidden_layer": {
        "neuron_0": {
            "weights": [
                0.4339992632835232,
                -0.03568800549511951,
                -0.8192664521900547,
                -0.5156109696750605,
                -1.2609049585715817,
                -1.1836744684195781,
                0.0934205586865593,
                -0.823014995896161,
                -0.4381309806252385,
                -1.4167067038619332,
                0.2984559136420576,
                0.7744254851526531,
                0.045465658763988115,
                0.815132947852186,
                0.83198979895282,
                0.18712937221899786,
                -0.4326601910001955,
                0.5910167914241532,
                0.12311653669235734,
                -0.3466076170077236,
                -0.6921846726706239,
                -1.1082826260180607,
                0.19204256707733955,
                -0.6739496536972847,
                1.1644387531364808,
                -0.14368764580055315,
                -0.9898768323075626,
                -0.34920060368146455,
                -0.4695952646365491,
                0.12640226352039471,
                0.8441743751388471,
                0.9272399541785057,
                0.8723095483215619,
                0.7547461438559109,
                0.30639369905107783,
                0.01781275344506309,
                0.5924485219263085,
                1.5593531238669531,
                1.471548685115055,
                -1.1391314222966733
            ],
            "bias": -0.6307414693143839
        },
        "neuron_1": {
            "weights": [
                0.9950044595896047,
                0.22539633890242783,
                -0.20473299019845448,
                0.31610606932309654,
                0.9004312647208531,
                -0.2638920332403892,
                -0.6302910889489459,
                -0.6080342751617096,
                0.08539216631649693,
                0.3766770034467383,
                -0.007649599807813167,
                -0.05557014967610141,
                -0.14491796328290074,
                -0.5014155417022501,
                0.3671937871060437,
                0.5379367463840635,
                -0.16671552030857656,
                0.217827792326649,
                -1.1144362307546472,
                -0.27280164168184695,
                0.010365807724229955,
                0.11828884960321823,
                -0.29002634417219,
                0.2564710552950923,
                0.014495752309560895,
                -1.0859659234728158,
                -0.6783838971650027,
                0.4929828102360483,
                -0.5120207132418328,
                -0.2640115843850635,
                0.650951110328068,
                0.7060189109347201,
                0.392059593349946,
                0.4815372355084089,
                0.5722352516500196,
                -0.7380714729883141,
                0.4350583011362429,
                -0.31496616500808927,
                1.2050959389232951,
                0.861799792582584
            ],
            "bias": -0.0225456573584957
        },
        "neuron_2": {
            "weights": [
                0.5735642497291242,
                -0.9610343060520741,
                -0.08746440648544387,
                -0.5520068794529572,
                0.500297441438037,
                -0.88257740153924,
                0.9391692555291171,
                -0.9095454221789239,
                -0.7181515500504747,
                0.4623602439255587,
                -0.28955839406437645,
                -0.7608115081233966,
                -0.9491617465118096,
                -0.17923415392874054,
                0.7983776045493313,
                -0.3153474938259461,
                0.7465098716631212,
                0.6389470701241498,
                1.1308165333253564,
                1.9338376244607582,
                0.31570497775211537,
                0.4059775745585624,
                0.924308828347468,
                0.6852932512764306,
                0.640596298336963,
                -0.6280970155804493,
                0.09746757873317224,
                0.2992657980944293,
                0.9460211095048912,
                -0.07794393287543078,
                1.3093409613822973,
                -0.4111022158608286,
                0.14012234017872993,
                0.39403148199053595,
                0.0713303539522,
                0.25942033491876276,
                -1.2890320074241457,
                -0.10425155566423608,
                -0.31743181069984366,
                0.7228090918984106
            ],
            "bias": 0.31883285796561356
        },
        "neuron_3": {
            "weights": [
                -0.059298621303151076,
                1.3276394642067484,
                -0.04780538531937513,
                0.39820521111176693,
                1.0892528718452954,
                1.1883771384420954,
                0.5502656467222291,
                -0.3493393384734713,
                0.6043939615080793,
                0.8277506703665115,
                -0.5031469651434163,
                0.42648957444599,
                -0.7842171460133911,
                0.5111022770860973,
                -0.03790666056959489,
                -0.4101598166601029,
                -1.790986970017732,
                -0.2916384255172679,
                -1.2298445445014705,
                -1.7691754735344034,
                0.44128570243406057,
                -0.984907767742504,
                -0.7430415373062298,
                0.09231819760071083,
                -1.554866867332084,
                1.1668447113386895,
                0.3837903953853865,
                0.6984468209883559,
                -0.2138045506664792,
                -0.33592361042201857,
                -0.36240444081694495,
                -0.22980454279614948,
                -0.8056470124584629,
                0.40496816797421853,
                0.3727689236589429,
                -1.220495127304,
                -0.40372387092851486,
                -0.3077253184394075,
                0.16749269745554707,
                0.37386498658918
            ],
            "bias": -0.5396556461713745
        },
        "neuron_4": {
            "weights": [
                -0.08941320521486697,
                0.8425380146836762,
                0.23317939029791768,
                0.19430273857724334,
                -0.34370292041667383,
                -0.47296643594680493,
                0.8789978831283782,
                -0.22264542062103598,
                -0.8508987126404584,
                0.5520142942250533,
                -0.36856175571551436,
                0.5215700972337949,
                -0.9371416286265315,
                -0.5424036690167551,
                0.4581007609764983,
                -0.5346560740629552,
                -0.7884030671612672,
                0.8967607880555897,
                -0.9251762993286541,
                0.1479581607534432,
                -0.8099468590380215,
                -0.14399301563111297,
                -0.48604643012916077,
                -0.10887797551766237,
                0.25559842368216557,
                0.22233172017233802,
                0.30392251900520106,
                0.31522578460068673,
                0.7840931103542266,
                -0.5876986679400203,
                -1.0066827073256919,
                0.7022733430337138,
                0.23001445339833948,
                -0.28101769756048967,
                0.6060639587867122,
                -0.3375891101974993,
                1.7473736282625907,
                0.2055359492804821,
                1.6925448964806817,
                -0.3502732434011379
            ],
            "bias": -0.24130116989389916
        },
        "neuron_5": {
            "weights": [
                -0.6697490355262986,
                -0.45365287523205616,
                -0.6162395243258143,
                -0.8023264201899025,
                -0.7993269598088855,
                0.4298173230780677,
                0.7896547008552977,
                -0.4573019364522082,
                0.9737738732010346,
                -0.7471379421617173,
                -0.24486060157640213,
                0.12255439513899247,
                0.2728208225275608,
                -0.846040180342414,
                -0.6205708263610864,
                -0.04101166837738377,
                -0.3069132644629611,
                -0.4785790156194887,
                -0.4248506787969941,
                0.524199474345934,
                0.775377745548578,
                -0.5639045986454044,
                -0.7899491065601022,
                -0.533191567240377,
                0.795180763593653,
                -0.8768331423966387,
                -0.5514613810788804,
                0.13661720667094324,
                0.2622772519945258,
                -0.9450790112702504,
                0.9560810673672042,
                -0.36615598968744467,
                0.9801077002085266,
                -0.4128163114710133,
                0.40470061592563406,
                -1.0169403163015223,
                -0.06775917511107116,
                0.2745688052026969,
                -0.2464759554094495,
                -0.6703075088995888
            ],
            "bias": 0.3564925857985765
        },
        "neuron_6": {
            "weights": [
                -1.3557464988433428,
                -0.9008629859047426,
                -0.34730886657968013,
                0.2834915401527606,
                0.3334639883326023,
                -0.30817601147129453,
                0.19579995762217028,
                0.6574750183038587,
                0.5444895385933148,
                -0.21466670656157258,
                0.5276141930260062,
                0.541934359909122,
                -0.37128803784734665,
                -0.42049709417246395,
                0.859577088437736,
                0.7044313681948644,
                0.6623658073057057,
                -0.22895658873456803,
                0.5930781714139748,
                -0.41526375586571074,
                -0.29003803370664477,
                0.6232603374877268,
                1.1823019932259615,
                -0.4808797077193752,
                0.8836340046797232,
                -0.7286550779180576,
                0.4243584426950717,
                -0.812650464343815,
                0.5896226070832968,
                0.3654036832721111,
                -0.04022780232377333,
                -0.661014506627815,
                -0.7198319695269519,
                0.6187223109570272,
                0.47233559086529026,
                0.8326859327453825,
                -2.050880758006536,
                -1.2237315400901005,
                -1.4270589418990394,
                -0.35421115798900227
            ],
            "bias": 0.07467435351005947
        },
        "neuron_7": {
            "weights": [
                -0.4589454428300349,
                -0.22466521171363138,
                0.23522539336959142,
                -0.1564500458432098,
                0.4382052504609265,
                0.5426377491378247,
                0.8437484700462337,
                -0.28649334661282144,
                -0.6025686369316552,
                -0.2657601741675306,
                0.7776166494926284,
                -0.012408807271218514,
                0.01714138232940554,
                -0.6775574254919912,
                -0.012563675659074083,
                1.2239628732949048,
                -1.0967184966332952,
                -1.1413677410412648,
                -1.2640005793408637,
                -0.1927157252483818,
                -0.12446127241808481,
                -0.5572912037873015,
                0.8486546449646777,
                0.8884074541093692,
                -0.08939733075685151,
                0.8295052449983145,
                -0.5255018250063999,
                -0.26456839388113296,
                0.005274186210384224,
                -0.7370268006762749,
                0.8779110818878239,
                0.11360252491670031,
                0.036659304727473474,
                0.6202267893583615,
                1.094087045654417,
                0.5339449459571131,
                -1.0929651840300523,
                -0.8625919011432439,
                -1.98053894145513,
                -0.40553826546810406
            ],
            "bias": 1.2154813891588627
        }
    },
    "output_layer": {
        "neuron_0": {
            "weights": [
                -1.9869727364445673,
                -1.3436122726993542,
                1.2374742322127747,
                -1.1223801147248023,
                -3.157252827137531,
                -1.005616726991756,
                3.0476527667731332,
                2.024545977072373
            ],
            "bias": -0.3564264459427235
        },
        "neuron_1": {
            "weights": [
                2.86410478375924,
                1.1526476769714882,
                1.5435841041946496,
                -3.4692843381301244,
                0.4185541474518926,
                0.5322921473312205,
                -2.760490757415646,
                -3.8902414388994977
            ],
            "bias": -0.615935411383497
        },
        "neuron_2": {
            "weights": [
                -0.4634016827812867,
                0.49253698132564466,
                -3.4916338570404206,
                4.664730919483174,
                -0.06224498587882842,
                0.6854930786361552,
                -1.5939169257188681,
                0.6393016101410308
            ],
            "bias": -0.9645169736722017
        }
    }
}